digraph Tree {
node [shape=box, style="rounded", color="black", fontname=helvetica] ;
edge [fontname=helvetica] ;
0 [label="Age <= 29.5\ngini = 0.365\nsamples = 24420\nvalue = [18547, 5873]\nclass = Target[<=50K]"] ;
1 [label="Age <= 24.5\ngini = 0.102\nsamples = 7277\nvalue = [6886, 391]\nclass = Target[<=50K]"] ;
0 -> 1 [labeldistance=2.5, labelangle=45, headlabel="True"] ;
2 [label="Age <= 23.5\ngini = 0.02\nsamples = 4161\nvalue = [4120, 41]\nclass = Target[<=50K]"] ;
1 -> 2 ;
3 [label="Age <= 21.5\ngini = 0.011\nsamples = 3566\nvalue = [3546, 20]\nclass = Target[<=50K]"] ;
2 -> 3 ;
4 [label="C(Relationship)[T.Other-relative] <= 0.5\ngini = 0.002\nsamples = 2351\nvalue = [2349, 2]\nclass = Target[<=50K]"] ;
3 -> 4 ;
5 [label="C(Relationship)[T.Not-in-family] <= 0.5\ngini = 0.001\nsamples = 2192\nvalue = [2191, 1]\nclass = Target[<=50K]"] ;
4 -> 5 ;
6 [label="gini = 0.0\nsamples = 1815\nvalue = [1815, 0]\nclass = Target[<=50K]"] ;
5 -> 6 ;
7 [label="C(Sex)[T.Male] <= 0.5\ngini = 0.005\nsamples = 377\nvalue = [376, 1]\nclass = Target[<=50K]"] ;
5 -> 7 ;
8 [label="gini = 0.0\nsamples = 213\nvalue = [213, 0]\nclass = Target[<=50K]"] ;
7 -> 8 ;
9 [label="gini = 0.012\nsamples = 164\nvalue = [163, 1]\nclass = Target[<=50K]"] ;
7 -> 9 ;
10 [label="gini = 0.012\nsamples = 159\nvalue = [158, 1]\nclass = Target[<=50K]"] ;
4 -> 10 ;
11 [label="C(Relationship)[T.Own-child] <= 0.5\ngini = 0.029\nsamples = 1215\nvalue = [1197, 18]\nclass = Target[<=50K]"] ;
3 -> 11 ;
12 [label="C(Sex)[T.Male] <= 0.5\ngini = 0.041\nsamples = 661\nvalue = [647, 14]\nclass = Target[<=50K]"] ;
11 -> 12 ;
13 [label="gini = 0.021\nsamples = 286\nvalue = [283, 3]\nclass = Target[<=50K]"] ;
12 -> 13 ;
14 [label="Age <= 22.5\ngini = 0.057\nsamples = 375\nvalue = [364, 11]\nclass = Target[<=50K]"] ;
12 -> 14 ;
15 [label="gini = 0.074\nsamples = 157\nvalue = [151, 6]\nclass = Target[<=50K]"] ;
14 -> 15 ;
16 [label="gini = 0.045\nsamples = 218\nvalue = [213, 5]\nclass = Target[<=50K]"] ;
14 -> 16 ;
17 [label="C(Education)[T.HS-grad] <= 0.5\ngini = 0.014\nsamples = 554\nvalue = [550, 4]\nclass = Target[<=50K]"] ;
11 -> 17 ;
18 [label="C(Sex)[T.Male] <= 0.5\ngini = 0.02\nsamples = 398\nvalue = [394, 4]\nclass = Target[<=50K]"] ;
17 -> 18 ;
19 [label="gini = 0.011\nsamples = 182\nvalue = [181, 1]\nclass = Target[<=50K]"] ;
18 -> 19 ;
20 [label="gini = 0.027\nsamples = 216\nvalue = [213, 3]\nclass = Target[<=50K]"] ;
18 -> 20 ;
21 [label="gini = 0.0\nsamples = 156\nvalue = [156, 0]\nclass = Target[<=50K]"] ;
17 -> 21 ;
22 [label="C(Relationship)[T.Own-child] <= 0.5\ngini = 0.068\nsamples = 595\nvalue = [574, 21]\nclass = Target[<=50K]"] ;
2 -> 22 ;
23 [label="C(Relationship)[T.Not-in-family] <= 0.5\ngini = 0.1\nsamples = 399\nvalue = [378, 21]\nclass = Target[<=50K]"] ;
22 -> 23 ;
24 [label="gini = 0.166\nsamples = 186\nvalue = [169, 17]\nclass = Target[<=50K]"] ;
23 -> 24 ;
25 [label="gini = 0.037\nsamples = 213\nvalue = [209, 4]\nclass = Target[<=50K]"] ;
23 -> 25 ;
26 [label="gini = 0.0\nsamples = 196\nvalue = [196, 0]\nclass = Target[<=50K]"] ;
22 -> 26 ;
27 [label="C(Relationship)[T.Wife] <= 0.5\ngini = 0.199\nsamples = 3116\nvalue = [2766, 350]\nclass = Target[<=50K]"] ;
1 -> 27 ;
28 [label="C(Sex)[T.Male] <= 0.5\ngini = 0.174\nsamples = 2952\nvalue = [2667, 285]\nclass = Target[<=50K]"] ;
27 -> 28 ;
29 [label="Age <= 27.5\ngini = 0.046\nsamples = 941\nvalue = [919, 22]\nclass = Target[<=50K]"] ;
28 -> 29 ;
30 [label="C(Occupation)[T.Adm-clerical] <= 0.5\ngini = 0.02\nsamples = 586\nvalue = [580, 6]\nclass = Target[<=50K]"] ;
29 -> 30 ;
31 [label="Age <= 25.5\ngini = 0.028\nsamples = 427\nvalue = [421, 6]\nclass = Target[<=50K]"] ;
30 -> 31 ;
32 [label="gini = 0.038\nsamples = 156\nvalue = [153, 3]\nclass = Target[<=50K]"] ;
31 -> 32 ;
33 [label="gini = 0.022\nsamples = 271\nvalue = [268, 3]\nclass = Target[<=50K]"] ;
31 -> 33 ;
34 [label="gini = 0.0\nsamples = 159\nvalue = [159, 0]\nclass = Target[<=50K]"] ;
30 -> 34 ;
35 [label="C(Relationship)[T.Not-in-family] <= 0.5\ngini = 0.086\nsamples = 355\nvalue = [339, 16]\nclass = Target[<=50K]"] ;
29 -> 35 ;
36 [label="gini = 0.043\nsamples = 180\nvalue = [176, 4]\nclass = Target[<=50K]"] ;
35 -> 36 ;
37 [label="gini = 0.128\nsamples = 175\nvalue = [163, 12]\nclass = Target[<=50K]"] ;
35 -> 37 ;
38 [label="C(Education)[T.Bachelors] <= 0.5\ngini = 0.227\nsamples = 2011\nvalue = [1748, 263]\nclass = Target[<=50K]"] ;
28 -> 38 ;
39 [label="C(Relationship)[T.Own-child] <= 0.5\ngini = 0.185\nsamples = 1604\nvalue = [1439, 165]\nclass = Target[<=50K]"] ;
38 -> 39 ;
40 [label="C(Relationship)[T.Not-in-family] <= 0.5\ngini = 0.216\nsamples = 1312\nvalue = [1150, 162]\nclass = Target[<=50K]"] ;
39 -> 40 ;
41 [label="Age <= 27.5\ngini = 0.278\nsamples = 850\nvalue = [708, 142]\nclass = Target[<=50K]"] ;
40 -> 41 ;
42 [label="Age <= 26.5\ngini = 0.231\nsamples = 451\nvalue = [391, 60]\nclass = Target[<=50K]"] ;
41 -> 42 ;
43 [label="gini = 0.213\nsamples = 289\nvalue = [254, 35]\nclass = Target[<=50K]"] ;
42 -> 43 ;
44 [label="gini = 0.261\nsamples = 162\nvalue = [137, 25]\nclass = Target[<=50K]"] ;
42 -> 44 ;
45 [label="C(Education)[T.HS-grad] <= 0.5\ngini = 0.327\nsamples = 399\nvalue = [317, 82]\nclass = Target[<=50K]"] ;
41 -> 45 ;
46 [label="gini = 0.385\nsamples = 204\nvalue = [151, 53]\nclass = Target[<=50K]"] ;
45 -> 46 ;
47 [label="gini = 0.253\nsamples = 195\nvalue = [166, 29]\nclass = Target[<=50K]"] ;
45 -> 47 ;
48 [label="C(Education)[T.HS-grad] <= 0.5\ngini = 0.083\nsamples = 462\nvalue = [442, 20]\nclass = Target[<=50K]"] ;
40 -> 48 ;
49 [label="gini = 0.098\nsamples = 270\nvalue = [256, 14]\nclass = Target[<=50K]"] ;
48 -> 49 ;
50 [label="gini = 0.061\nsamples = 192\nvalue = [186, 6]\nclass = Target[<=50K]"] ;
48 -> 50 ;
51 [label="gini = 0.02\nsamples = 292\nvalue = [289, 3]\nclass = Target[<=50K]"] ;
39 -> 51 ;
52 [label="Age <= 27.5\ngini = 0.366\nsamples = 407\nvalue = [309, 98]\nclass = Target[<=50K]"] ;
38 -> 52 ;
53 [label="gini = 0.266\nsamples = 253\nvalue = [213, 40]\nclass = Target[<=50K]"] ;
52 -> 53 ;
54 [label="gini = 0.47\nsamples = 154\nvalue = [96, 58]\nclass = Target[<=50K]"] ;
52 -> 54 ;
55 [label="gini = 0.479\nsamples = 164\nvalue = [99, 65]\nclass = Target[<=50K]"] ;
27 -> 55 ;
56 [label="C(Sex)[T.Male] <= 0.5\ngini = 0.435\nsamples = 17143\nvalue = [11661, 5482]\nclass = Target[<=50K]"] ;
0 -> 56 [labeldistance=2.5, labelangle=-45, headlabel="False"] ;
57 [label="C(Relationship)[T.Wife] <= 0.5\ngini = 0.255\nsamples = 5061\nvalue = [4302, 759]\nclass = Target[<=50K]"] ;
56 -> 57 ;
58 [label="C(Education)[T.Masters] <= 0.5\ngini = 0.131\nsamples = 4126\nvalue = [3836, 290]\nclass = Target[<=50K]"] ;
57 -> 58 ;
59 [label="C(Occupation)[T.Prof-specialty] <= 0.5\ngini = 0.11\nsamples = 3867\nvalue = [3642, 225]\nclass = Target[<=50K]"] ;
58 -> 59 ;
60 [label="C(Education)[T.Bachelors] <= 0.5\ngini = 0.083\nsamples = 3400\nvalue = [3253, 147]\nclass = Target[<=50K]"] ;
59 -> 60 ;
61 [label="C(Occupation)[T.Exec-managerial] <= 0.5\ngini = 0.061\nsamples = 3056\nvalue = [2959, 97]\nclass = Target[<=50K]"] ;
60 -> 61 ;
62 [label="C(Education)[T.Some-college] <= 0.5\ngini = 0.047\nsamples = 2739\nvalue = [2673, 66]\nclass = Target[<=50K]"] ;
61 -> 62 ;
63 [label="C(Occupation)[T.Sales] <= 0.5\ngini = 0.036\nsamples = 2023\nvalue = [1986, 37]\nclass = Target[<=50K]"] ;
62 -> 63 ;
64 [label="C(Occupation)[T.Other-service] <= 0.5\ngini = 0.029\nsamples = 1787\nvalue = [1761, 26]\nclass = Target[<=50K]"] ;
63 -> 64 ;
65 [label="C(Education)[T.HS-grad] <= 0.5\ngini = 0.036\nsamples = 1241\nvalue = [1218, 23]\nclass = Target[<=50K]"] ;
64 -> 65 ;
66 [label="Age <= 45.5\ngini = 0.056\nsamples = 447\nvalue = [434, 13]\nclass = Target[<=50K]"] ;
65 -> 66 ;
67 [label="gini = 0.082\nsamples = 233\nvalue = [223, 10]\nclass = Target[<=50K]"] ;
66 -> 67 ;
68 [label="gini = 0.028\nsamples = 214\nvalue = [211, 3]\nclass = Target[<=50K]"] ;
66 -> 68 ;
69 [label="Age <= 54.5\ngini = 0.025\nsamples = 794\nvalue = [784, 10]\nclass = Target[<=50K]"] ;
65 -> 69 ;
70 [label="gini = 0.013\nsamples = 600\nvalue = [596, 4]\nclass = Target[<=50K]"] ;
69 -> 70 ;
71 [label="gini = 0.06\nsamples = 194\nvalue = [188, 6]\nclass = Target[<=50K]"] ;
69 -> 71 ;
72 [label="C(Relationship)[T.Unmarried] <= 0.5\ngini = 0.011\nsamples = 546\nvalue = [543, 3]\nclass = Target[<=50K]"] ;
64 -> 72 ;
73 [label="gini = 0.0\nsamples = 304\nvalue = [304, 0]\nclass = Target[<=50K]"] ;
72 -> 73 ;
74 [label="gini = 0.024\nsamples = 242\nvalue = [239, 3]\nclass = Target[<=50K]"] ;
72 -> 74 ;
75 [label="gini = 0.089\nsamples = 236\nvalue = [225, 11]\nclass = Target[<=50K]"] ;
63 -> 75 ;
76 [label="Age <= 38.5\ngini = 0.078\nsamples = 716\nvalue = [687, 29]\nclass = Target[<=50K]"] ;
62 -> 76 ;
77 [label="gini = 0.023\nsamples = 257\nvalue = [254, 3]\nclass = Target[<=50K]"] ;
76 -> 77 ;
78 [label="C(Relationship)[T.Unmarried] <= 0.5\ngini = 0.107\nsamples = 459\nvalue = [433, 26]\nclass = Target[<=50K]"] ;
76 -> 78 ;
79 [label="gini = 0.136\nsamples = 272\nvalue = [252, 20]\nclass = Target[<=50K]"] ;
78 -> 79 ;
80 [label="gini = 0.062\nsamples = 187\nvalue = [181, 6]\nclass = Target[<=50K]"] ;
78 -> 80 ;
81 [label="Age <= 43.5\ngini = 0.176\nsamples = 317\nvalue = [286, 31]\nclass = Target[<=50K]"] ;
61 -> 81 ;
82 [label="gini = 0.116\nsamples = 162\nvalue = [152, 10]\nclass = Target[<=50K]"] ;
81 -> 82 ;
83 [label="gini = 0.234\nsamples = 155\nvalue = [134, 21]\nclass = Target[<=50K]"] ;
81 -> 83 ;
84 [label="Age <= 39.5\ngini = 0.248\nsamples = 344\nvalue = [294, 50]\nclass = Target[<=50K]"] ;
60 -> 84 ;
85 [label="gini = 0.192\nsamples = 167\nvalue = [149, 18]\nclass = Target[<=50K]"] ;
84 -> 85 ;
86 [label="gini = 0.296\nsamples = 177\nvalue = [145, 32]\nclass = Target[<=50K]"] ;
84 -> 86 ;
87 [label="C(Relationship)[T.Not-in-family] <= 0.5\ngini = 0.278\nsamples = 467\nvalue = [389, 78]\nclass = Target[<=50K]"] ;
59 -> 87 ;
88 [label="gini = 0.233\nsamples = 215\nvalue = [186, 29]\nclass = Target[<=50K]"] ;
87 -> 88 ;
89 [label="gini = 0.313\nsamples = 252\nvalue = [203, 49]\nclass = Target[<=50K]"] ;
87 -> 89 ;
90 [label="gini = 0.376\nsamples = 259\nvalue = [194, 65]\nclass = Target[<=50K]"] ;
58 -> 90 ;
91 [label="C(Occupation)[T.Prof-specialty] <= 0.5\ngini = 0.5\nsamples = 935\nvalue = [466, 469]\nclass = Target[>50K]"] ;
57 -> 91 ;
92 [label="C(Education)[T.HS-grad] <= 0.5\ngini = 0.493\nsamples = 746\nvalue = [416, 330]\nclass = Target[<=50K]"] ;
91 -> 92 ;
93 [label="Age <= 45.5\ngini = 0.5\nsamples = 448\nvalue = [229, 219]\nclass = Target[<=50K]"] ;
92 -> 93 ;
94 [label="gini = 0.5\nsamples = 296\nvalue = [145, 151]\nclass = Target[>50K]"] ;
93 -> 94 ;
95 [label="gini = 0.494\nsamples = 152\nvalue = [84, 68]\nclass = Target[<=50K]"] ;
93 -> 95 ;
96 [label="gini = 0.467\nsamples = 298\nvalue = [187, 111]\nclass = Target[<=50K]"] ;
92 -> 96 ;
97 [label="gini = 0.389\nsamples = 189\nvalue = [50, 139]\nclass = Target[>50K]"] ;
91 -> 97 ;
98 [label="C(Occupation)[T.Exec-managerial] <= 0.5\ngini = 0.476\nsamples = 12082\nvalue = [7359, 4723]\nclass = Target[<=50K]"] ;
56 -> 98 ;
99 [label="C(Occupation)[T.Prof-specialty] <= 0.5\ngini = 0.451\nsamples = 10133\nvalue = [6649, 3484]\nclass = Target[<=50K]"] ;
98 -> 99 ;
100 [label="C(Relationship)[T.Not-in-family] <= 0.5\ngini = 0.408\nsamples = 8508\nvalue = [6074, 2434]\nclass = Target[<=50K]"] ;
99 -> 100 ;
101 [label="C(Education)[T.Bachelors] <= 0.5\ngini = 0.44\nsamples = 6937\nvalue = [4670, 2267]\nclass = Target[<=50K]"] ;
100 -> 101 ;
102 [label="C(Occupation)[T.Sales] <= 0.5\ngini = 0.414\nsamples = 6121\nvalue = [4328, 1793]\nclass = Target[<=50K]"] ;
101 -> 102 ;
103 [label="C(Relationship)[T.Own-child] <= 0.5\ngini = 0.392\nsamples = 5346\nvalue = [3913, 1433]\nclass = Target[<=50K]"] ;
102 -> 103 ;
104 [label="C(Occupation)[T.Tech-support] <= 0.5\ngini = 0.406\nsamples = 5030\nvalue = [3604, 1426]\nclass = Target[<=50K]"] ;
103 -> 104 ;
105 [label="C(Relationship)[T.Unmarried] <= 0.5\ngini = 0.397\nsamples = 4849\nvalue = [3525, 1324]\nclass = Target[<=50K]"] ;
104 -> 105 ;
106 [label="Age <= 35.5\ngini = 0.409\nsamples = 4553\nvalue = [3249, 1304]\nclass = Target[<=50K]"] ;
105 -> 106 ;
107 [label="C(Education)[T.Some-college] <= 0.5\ngini = 0.312\nsamples = 963\nvalue = [777, 186]\nclass = Target[<=50K]"] ;
106 -> 107 ;
108 [label="gini = 0.285\nsamples = 744\nvalue = [616, 128]\nclass = Target[<=50K]"] ;
107 -> 108 ;
109 [label="gini = 0.389\nsamples = 219\nvalue = [161, 58]\nclass = Target[<=50K]"] ;
107 -> 109 ;
110 [label="Age <= 61.5\ngini = 0.429\nsamples = 3590\nvalue = [2472, 1118]\nclass = Target[<=50K]"] ;
106 -> 110 ;
111 [label="gini = 0.443\nsamples = 3130\nvalue = [2092, 1038]\nclass = Target[<=50K]"] ;
110 -> 111 ;
112 [label="gini = 0.287\nsamples = 460\nvalue = [380, 80]\nclass = Target[<=50K]"] ;
110 -> 112 ;
113 [label="gini = 0.126\nsamples = 296\nvalue = [276, 20]\nclass = Target[<=50K]"] ;
105 -> 113 ;
114 [label="gini = 0.492\nsamples = 181\nvalue = [79, 102]\nclass = Target[>50K]"] ;
104 -> 114 ;
115 [label="Age <= 35.5\ngini = 0.043\nsamples = 316\nvalue = [309, 7]\nclass = Target[<=50K]"] ;
103 -> 115 ;
116 [label="gini = 0.051\nsamples = 152\nvalue = [148, 4]\nclass = Target[<=50K]"] ;
115 -> 116 ;
117 [label="gini = 0.036\nsamples = 164\nvalue = [161, 3]\nclass = Target[<=50K]"] ;
115 -> 117 ;
118 [label="C(Education)[T.HS-grad] <= 0.5\ngini = 0.497\nsamples = 775\nvalue = [415, 360]\nclass = Target[<=50K]"] ;
102 -> 118 ;
119 [label="Age <= 42.5\ngini = 0.5\nsamples = 482\nvalue = [239, 243]\nclass = Target[>50K]"] ;
118 -> 119 ;
120 [label="gini = 0.498\nsamples = 206\nvalue = [110, 96]\nclass = Target[<=50K]"] ;
119 -> 120 ;
121 [label="gini = 0.498\nsamples = 276\nvalue = [129, 147]\nclass = Target[>50K]"] ;
119 -> 121 ;
122 [label="gini = 0.48\nsamples = 293\nvalue = [176, 117]\nclass = Target[<=50K]"] ;
118 -> 122 ;
123 [label="C(Occupation)[T.Sales] <= 0.5\ngini = 0.487\nsamples = 816\nvalue = [342, 474]\nclass = Target[>50K]"] ;
101 -> 123 ;
124 [label="Age <= 49.5\ngini = 0.499\nsamples = 502\nvalue = [241, 261]\nclass = Target[>50K]"] ;
123 -> 124 ;
125 [label="Age <= 40.5\ngini = 0.495\nsamples = 352\nvalue = [159, 193]\nclass = Target[>50K]"] ;
124 -> 125 ;
126 [label="gini = 0.498\nsamples = 193\nvalue = [102, 91]\nclass = Target[<=50K]"] ;
125 -> 126 ;
127 [label="gini = 0.46\nsamples = 159\nvalue = [57, 102]\nclass = Target[>50K]"] ;
125 -> 127 ;
128 [label="gini = 0.496\nsamples = 150\nvalue = [82, 68]\nclass = Target[<=50K]"] ;
124 -> 128 ;
129 [label="Age <= 41.5\ngini = 0.436\nsamples = 314\nvalue = [101, 213]\nclass = Target[>50K]"] ;
123 -> 129 ;
130 [label="gini = 0.431\nsamples = 156\nvalue = [49, 107]\nclass = Target[>50K]"] ;
129 -> 130 ;
131 [label="gini = 0.442\nsamples = 158\nvalue = [52, 106]\nclass = Target[>50K]"] ;
129 -> 131 ;
132 [label="C(Occupation)[T.Sales] <= 0.5\ngini = 0.19\nsamples = 1571\nvalue = [1404, 167]\nclass = Target[<=50K]"] ;
100 -> 132 ;
133 [label="C(Occupation)[T.Other-service] <= 0.5\ngini = 0.156\nsamples = 1361\nvalue = [1245, 116]\nclass = Target[<=50K]"] ;
132 -> 133 ;
134 [label="Age <= 35.5\ngini = 0.169\nsamples = 1178\nvalue = [1068, 110]\nclass = Target[<=50K]"] ;
133 -> 134 ;
135 [label="Age <= 32.5\ngini = 0.124\nsamples = 362\nvalue = [338, 24]\nclass = Target[<=50K]"] ;
134 -> 135 ;
136 [label="gini = 0.111\nsamples = 170\nvalue = [160, 10]\nclass = Target[<=50K]"] ;
135 -> 136 ;
137 [label="gini = 0.135\nsamples = 192\nvalue = [178, 14]\nclass = Target[<=50K]"] ;
135 -> 137 ;
138 [label="C(Education)[T.Some-college] <= 0.5\ngini = 0.189\nsamples = 816\nvalue = [730, 86]\nclass = Target[<=50K]"] ;
134 -> 138 ;
139 [label="Age <= 43.5\ngini = 0.176\nsamples = 658\nvalue = [594, 64]\nclass = Target[<=50K]"] ;
138 -> 139 ;
140 [label="gini = 0.134\nsamples = 291\nvalue = [270, 21]\nclass = Target[<=50K]"] ;
139 -> 140 ;
141 [label="C(Education)[T.HS-grad] <= 0.5\ngini = 0.207\nsamples = 367\nvalue = [324, 43]\nclass = Target[<=50K]"] ;
139 -> 141 ;
142 [label="gini = 0.194\nsamples = 184\nvalue = [164, 20]\nclass = Target[<=50K]"] ;
141 -> 142 ;
143 [label="gini = 0.22\nsamples = 183\nvalue = [160, 23]\nclass = Target[<=50K]"] ;
141 -> 143 ;
144 [label="gini = 0.24\nsamples = 158\nvalue = [136, 22]\nclass = Target[<=50K]"] ;
138 -> 144 ;
145 [label="gini = 0.063\nsamples = 183\nvalue = [177, 6]\nclass = Target[<=50K]"] ;
133 -> 145 ;
146 [label="gini = 0.368\nsamples = 210\nvalue = [159, 51]\nclass = Target[<=50K]"] ;
132 -> 146 ;
147 [label="C(Relationship)[T.Not-in-family] <= 0.5\ngini = 0.457\nsamples = 1625\nvalue = [575, 1050]\nclass = Target[>50K]"] ;
99 -> 147 ;
148 [label="C(Education)[T.Prof-school] <= 0.5\ngini = 0.413\nsamples = 1325\nvalue = [386, 939]\nclass = Target[>50K]"] ;
147 -> 148 ;
149 [label="Age <= 37.5\ngini = 0.443\nsamples = 1097\nvalue = [364, 733]\nclass = Target[>50K]"] ;
148 -> 149 ;
150 [label="gini = 0.491\nsamples = 299\nvalue = [130, 169]\nclass = Target[>50K]"] ;
149 -> 150 ;
151 [label="C(Education)[T.Masters] <= 0.5\ngini = 0.414\nsamples = 798\nvalue = [234, 564]\nclass = Target[>50K]"] ;
149 -> 151 ;
152 [label="Age <= 49.5\ngini = 0.441\nsamples = 587\nvalue = [193, 394]\nclass = Target[>50K]"] ;
151 -> 152 ;
153 [label="Age <= 43.5\ngini = 0.455\nsamples = 365\nvalue = [128, 237]\nclass = Target[>50K]"] ;
152 -> 153 ;
154 [label="gini = 0.449\nsamples = 185\nvalue = [63, 122]\nclass = Target[>50K]"] ;
153 -> 154 ;
155 [label="gini = 0.461\nsamples = 180\nvalue = [65, 115]\nclass = Target[>50K]"] ;
153 -> 155 ;
156 [label="gini = 0.414\nsamples = 222\nvalue = [65, 157]\nclass = Target[>50K]"] ;
152 -> 156 ;
157 [label="gini = 0.313\nsamples = 211\nvalue = [41, 170]\nclass = Target[>50K]"] ;
151 -> 157 ;
158 [label="gini = 0.174\nsamples = 228\nvalue = [22, 206]\nclass = Target[>50K]"] ;
148 -> 158 ;
159 [label="gini = 0.466\nsamples = 300\nvalue = [189, 111]\nclass = Target[<=50K]"] ;
147 -> 159 ;
160 [label="C(Relationship)[T.Not-in-family] <= 0.5\ngini = 0.463\nsamples = 1949\nvalue = [710, 1239]\nclass = Target[>50K]"] ;
98 -> 160 ;
161 [label="C(Education)[T.HS-grad] <= 0.5\ngini = 0.43\nsamples = 1660\nvalue = [519, 1141]\nclass = Target[>50K]"] ;
160 -> 161 ;
162 [label="C(Education)[T.Masters] <= 0.5\ngini = 0.393\nsamples = 1347\nvalue = [362, 985]\nclass = Target[>50K]"] ;
161 -> 162 ;
163 [label="C(Education)[T.Bachelors] <= 0.5\ngini = 0.424\nsamples = 1100\nvalue = [335, 765]\nclass = Target[>50K]"] ;
162 -> 163 ;
164 [label="Age <= 39.5\ngini = 0.478\nsamples = 535\nvalue = [211, 324]\nclass = Target[>50K]"] ;
163 -> 164 ;
165 [label="gini = 0.5\nsamples = 162\nvalue = [81, 81]\nclass = Target[<=50K]"] ;
164 -> 165 ;
166 [label="Age <= 50.5\ngini = 0.454\nsamples = 373\nvalue = [130, 243]\nclass = Target[>50K]"] ;
164 -> 166 ;
167 [label="gini = 0.437\nsamples = 192\nvalue = [62, 130]\nclass = Target[>50K]"] ;
166 -> 167 ;
168 [label="gini = 0.469\nsamples = 181\nvalue = [68, 113]\nclass = Target[>50K]"] ;
166 -> 168 ;
169 [label="Age <= 39.5\ngini = 0.343\nsamples = 565\nvalue = [124, 441]\nclass = Target[>50K]"] ;
163 -> 169 ;
170 [label="gini = 0.41\nsamples = 184\nvalue = [53, 131]\nclass = Target[>50K]"] ;
169 -> 170 ;
171 [label="Age <= 50.5\ngini = 0.303\nsamples = 381\nvalue = [71, 310]\nclass = Target[>50K]"] ;
169 -> 171 ;
172 [label="gini = 0.265\nsamples = 229\nvalue = [36, 193]\nclass = Target[>50K]"] ;
171 -> 172 ;
173 [label="gini = 0.354\nsamples = 152\nvalue = [35, 117]\nclass = Target[>50K]"] ;
171 -> 173 ;
174 [label="gini = 0.195\nsamples = 247\nvalue = [27, 220]\nclass = Target[>50K]"] ;
162 -> 174 ;
175 [label="Age <= 44.5\ngini = 0.5\nsamples = 313\nvalue = [157, 156]\nclass = Target[<=50K]"] ;
161 -> 175 ;
176 [label="gini = 0.492\nsamples = 156\nvalue = [88, 68]\nclass = Target[<=50K]"] ;
175 -> 176 ;
177 [label="gini = 0.493\nsamples = 157\nvalue = [69, 88]\nclass = Target[>50K]"] ;
175 -> 177 ;
178 [label="gini = 0.448\nsamples = 289\nvalue = [191, 98]\nclass = Target[<=50K]"] ;
160 -> 178 ;
}